{
  "weights": [
    -0.013894076,
    0.03600561,
    0.018624822,
    0.029481608,
    0.04810472,
    -0.03437084,
    0.048120093,
    -0.01455407,
    0.015235124,
    -0.103482805,
    -0.06639012,
    -0.09857524,
    -0.05223116,
    -0.058932353,
    -0.038379688,
    0.06294922,
    0.007162438,
    -0.075184,
    0.019384736,
    -0.022781093,
    -0.008366526,
    -0.027207397,
    -0.03101478,
    -0.039580114,
    0.09061957,
    0.029217219,
    0.08053605,
    0.04922382,
    -0.045644343,
    0.030460486,
    -0.062406607,
    -0.011609957,
    0.062065847,
    0.043659598,
    0.055503827,
    0.0138872,
    0.033948436,
    -0.09635703,
    0.087738335,
    -0.03346098,
    0.07828708,
    -0.036437538,
    -0.01447596,
    -0.028710335,
    0.046596996,
    0.08271109,
    0.023558507,
    0.00017597298,
    0.03117904,
    -0.0019021004,
    0.10204978,
    0.037411254,
    0.041463487,
    0.002489293,
    -0.010155769,
    -0.048981298,
    0.012413484,
    -0.0118122995,
    0.08722732,
    0.021286827,
    -0.08208536,
    -0.020628745,
    0.017467013,
    -0.0076753628,
    0.006677124,
    -0.080387436,
    -0.05752687,
    -0.08565565,
    -0.031623192,
    -0.00913263,
    0.054944444,
    -0.0032869969,
    0.059374366,
    0.007773764,
    -0.0044674864,
    0.10068074,
    0.13530661,
    -0.047214992,
    -0.052835602,
    -0.049876247,
    -0.013138253,
    0.0124747045,
    -0.048146766,
    -0.028210491,
    -0.085212946,
    0.043794572,
    0.026265373,
    -0.013988849,
    0.06837509,
    -0.014817064,
    -0.069875374,
    -0.048694767,
    -0.02114006,
    -0.045526594,
    -0.0075997156,
    0.019661719,
    0.029704338,
    -0.062281877,
    -0.041338626,
    0.0040165256,
    0.03055471,
    0.061743256,
    0.04128431,
    0.060135223,
    -0.12074066,
    0.06129346,
    -0.044968206,
    0.098207645,
    -0.026197055,
    -0.049824554,
    -0.008611773,
    0.010465605,
    -0.008443117,
    0.039639477,
    0.08683994,
    0.03872023,
    -0.026344301,
    0.007251584,
    -0.005095868,
    -0.031247513,
    -0.014257066,
    0.15923235,
    0.0022271916,
    -0.11114484,
    -0.00042525303,
    0.015545743,
    0.06555406,
    -0.018061724,
    0.0055419365,
    -0.00033989287,
    -0.055000886,
    0.082183115,
    0.010360015,
    0.029957538,
    0.021272589,
    0.099085875,
    0.036750644,
    0.04351499,
    0.06221253,
    0.037243064,
    -0.05194833,
    0.007813101,
    -0.016380833,
    -0.03105471,
    0.025483279,
    -0.13518202,
    0.007873032,
    0.100947626,
    0.013533115,
    -0.0014135096,
    -0.03468431,
    0.011866965,
    -0.041664027,
    -0.07260396,
    -0.0017966381,
    -0.03664565,
    0.013877168,
    -0.017287742,
    0.03286214,
    0.0473556,
    0.062288582,
    -0.02735098,
    -0.0447958,
    -0.016473133,
    -0.008923471,
    -0.014622734,
    -0.054176014,
    0.10369831,
    0.087452576,
    0.010715966,
    0.000022830398,
    -0.060504343,
    -0.018815493,
    -0.031134823,
    0.012358685,
    -0.0108263055,
    0.008978537,
    0.07699202,
    0.048398513,
    0.043685377,
    0.00005412785,
    -0.010469638,
    0.067858376,
    0.021380872,
    0.14399828,
    0.06793715,
    -0.0008813495,
    -0.026559895,
    -0.05602713,
    0.036277313,
    0.031927984,
    0.089244135,
    -0.07011681,
    0.027792739,
    0.08317866,
    0.06614451,
    0.004214877,
    0.027093949,
    -0.018629963,
    0.014818385,
    0.020941297,
    -0.005013393,
    -0.061616573,
    -0.031923518,
    0.015812067,
    0.025308834,
    -0.07944569,
    0.06915973,
    -0.018810457,
    -0.003151005,
    0.061812624,
    -0.059115823,
    0.08900277,
    0.04393969,
    0.063458376,
    0.0034469361,
    0.067007825,
    0.024602268,
    -0.044729825,
    -0.014722465,
    -0.009325583,
    -0.03146276,
    -0.009960839,
    0.025730336,
    -0.01416069,
    -0.027716579,
    0.056498382,
    0.028818876,
    0.00925064,
    -0.026688367,
    0.008818503,
    0.036789175,
    -0.05069093,
    0.01674572,
    0.07058969,
    0.026281003,
    -0.08872192,
    -0.033201963,
    0.019873507,
    0.028741105,
    -0.02801307,
    -0.004360393,
    0.06342705,
    0.016088102,
    -0.012759408,
    0.05089216,
    0.01936648,
    -0.035931837,
    -0.082249165,
    0.011495314,
    0.02634289,
    0.024281753,
    -0.10951343,
    -0.053343125,
    0.03006976,
    -0.06183015,
    0.05650797,
    0.094528526,
    0.043532964,
    -0.08828134,
    -0.047840003,
    0.049577218,
    0.035271473,
    -0.069269806,
    -0.015382477,
    -0.037217915,
    -0.039881043,
    0.043650594,
    -0.088964224,
    -0.10595333,
    -0.0029115884,
    -0.08301252,
    -0.017321782,
    -0.031708043,
    0.001190123,
    0.005171941,
    -0.043897625,
    0.026871523,
    -0.032564398,
    -0.036473595,
    0.10168091,
    -0.0067024245,
    0.040512145,
    -0.034840595,
    0.00654743,
    -0.02941901,
    -0.020418026,
    -0.05704954,
    -0.046610087,
    0.024555435,
    0.040771198,
    -0.013659077,
    0.070323326,
    0.038373034,
    -0.0054928465,
    -0.0025058766,
    -0.010819427,
    0.122347,
    -0.05981767,
    -0.027224714,
    -0.08092408,
    -0.025305469,
    -0.0032718384,
    0.032877646,
    -0.0504898,
    -0.010212456,
    -0.10956045,
    0.059999302,
    -0.09053153,
    0.048757315,
    -0.052466627,
    -0.018339414,
    0.06937138,
    -0.082404144,
    0.015297368,
    0.08403008,
    0.03400608,
    0.025713027,
    0.015870787,
    0.04466053,
    0.022008209,
    -0.007510427,
    0.0051852847,
    0.073989294,
    0.027000632,
    -0.10518417,
    -0.01728351,
    -0.10395005,
    0.024856344,
    0.03652386,
    0.044538606,
    -0.0072984556,
    -0.021296963,
    0.05139626,
    -0.024405913,
    0.03462486,
    -0.0038071077,
    0.03749083,
    0.020545317,
    -0.04018194,
    -0.016588101,
    -0.05532903,
    0.03664671,
    0.07201919,
    -0.036542643,
    0.054119684,
    0.025493277,
    -0.12091343,
    0.013068397,
    0.018638944,
    -0.026499547,
    -0.05122567,
    -0.016408313,
    -0.030961638,
    -0.035785027,
    -0.019782288,
    0.038072973,
    0.020894855,
    0.06919694,
    0.0043045757,
    -0.005316978,
    0.060036875,
    -0.008191822,
    -0.014533404,
    -0.104777105,
    -0.06002838,
    -0.060305458,
    0.01497163,
    -0.072997324,
    -0.058670703,
    0.025955483,
    0.007245998,
    -0.07904801,
    -0.07051903,
    -0.0124412505,
    -0.083402425,
    -0.044894915,
    0.089908436,
    -0.08642804,
    -0.015931731,
    -0.0282835,
    -0.05164767,
    0.018123185,
    -0.11632261
  ],
  "bias": -0.05764968
}
