{
  "weights": [
    -0.011482312,
    0.044903487,
    0.029915737,
    0.023500511,
    0.029062247,
    -0.047168512,
    0.027276214,
    -0.007648223,
    0.017968196,
    -0.08054959,
    -0.068786405,
    -0.09694079,
    -0.07106979,
    -0.07135734,
    -0.026884917,
    0.06510196,
    0.010580711,
    -0.05147716,
    0.022159705,
    -0.0077173184,
    -0.0067499117,
    -0.008257996,
    -0.039602626,
    -0.03517607,
    0.097303644,
    0.029033598,
    0.087290615,
    0.053445086,
    -0.053843085,
    0.020678,
    -0.06600342,
    0.00087704055,
    0.048173234,
    0.024905467,
    0.060152285,
    0.016054856,
    0.034199107,
    -0.10453831,
    0.10064569,
    -0.030957788,
    0.042604633,
    -0.039263383,
    0.003965841,
    -0.020710113,
    0.03714053,
    0.1001871,
    0.029930826,
    0.0067243325,
    0.028963273,
    -0.0048644603,
    0.10223443,
    0.054830182,
    0.019983226,
    -0.022649968,
    -0.008028331,
    -0.056642182,
    0.014272385,
    0.009828096,
    0.07916031,
    0.0125434855,
    -0.047100227,
    -0.036077682,
    0.002784614,
    -0.023832941,
    -0.004564793,
    -0.085242376,
    -0.05701292,
    -0.08037686,
    -0.01758659,
    -0.019116567,
    0.055247497,
    0.004647694,
    0.04989049,
    -0.008159794,
    -0.0040664785,
    0.09999074,
    0.12709,
    -0.050484236,
    -0.04603169,
    -0.053405877,
    -0.022872625,
    0.020795738,
    -0.04420324,
    -0.026961738,
    -0.077258624,
    0.05136841,
    0.04564921,
    -0.027548151,
    0.07894254,
    -0.020932326,
    -0.07474704,
    -0.059799217,
    -0.02036721,
    -0.054038048,
    0.0053197457,
    0.013193213,
    0.031333163,
    -0.062622435,
    -0.036680087,
    -0.0022959996,
    0.050348982,
    0.04835083,
    0.03130302,
    0.031221133,
    -0.1075558,
    0.06305453,
    -0.04925334,
    0.092569865,
    -0.056745075,
    -0.05484495,
    -0.004285975,
    0.023105247,
    -0.009685241,
    0.055223245,
    0.09560107,
    0.047020234,
    -0.045613132,
    0.0023273819,
    -0.011807764,
    -0.031588465,
    -0.044192336,
    0.13142867,
    0.009263797,
    -0.1125032,
    0.010944339,
    0.013971026,
    0.06911834,
    -0.012095421,
    -0.0053935247,
    0.014381971,
    -0.07858247,
    0.08718332,
    0.014496162,
    0.021511571,
    0.030948263,
    0.119847775,
    0.04389682,
    0.0587274,
    0.07719258,
    0.02923264,
    -0.02776269,
    0.0012140317,
    -0.007994914,
    -0.005493151,
    0.033470683,
    -0.13923082,
    0.020449778,
    0.07748033,
    0.02164293,
    -0.011906264,
    -0.03177256,
    -0.0025656968,
    -0.032176066,
    -0.06262616,
    0.025560569,
    -0.03581595,
    0.014395784,
    -0.020599704,
    0.026011359,
    0.06413436,
    0.05990189,
    -0.030761762,
    -0.061708644,
    -0.011091812,
    -0.021530867,
    -0.015764482,
    -0.020606786,
    0.10056478,
    0.076719865,
    0.0031848429,
    0.0026791187,
    -0.05174671,
    -0.020598117,
    -0.028169524,
    0.014007972,
    -0.013054232,
    0.022810219,
    0.08629182,
    0.03789727,
    0.046178978,
    0.010533012,
    -0.032501385,
    0.074785486,
    0.0055303597,
    0.15430526,
    0.08647331,
    -0.0027817255,
    -0.034973312,
    -0.054559857,
    0.022984779,
    0.03685583,
    0.08613412,
    -0.07900156,
    0.036408957,
    0.06051862,
    0.061328094,
    0.006267925,
    0.010170907,
    -0.008267266,
    -0.007828787,
    0.016705291,
    0.014804057,
    -0.0762154,
    -0.018277725,
    0.019814054,
    0.014214518,
    -0.06817855,
    0.06903109,
    -0.020063106,
    0.012429638,
    0.054106213,
    -0.06401257,
    0.06967689,
    0.025285471,
    0.05148345,
    0.0045780046,
    0.07742187,
    0.03631076,
    -0.037216466,
    -0.048419803,
    0.004227034,
    -0.027944943,
    -0.00841991,
    0.027050192,
    -0.027905094,
    -0.018541493,
    0.06565478,
    0.02262653,
    -0.014642316,
    -0.024121592,
    -0.023290481,
    0.024119677,
    -0.055824764,
    0.0060047237,
    0.06528405,
    0.026367432,
    -0.08105365,
    -0.020843524,
    0.009780782,
    0.029911764,
    -0.033021584,
    -0.0038099438,
    0.057049744,
    0.039199457,
    -0.001507812,
    0.06139544,
    0.0071382714,
    -0.021635016,
    -0.083842136,
    0.007861237,
    0.025531268,
    0.010743276,
    -0.12705183,
    -0.03487037,
    0.0026721093,
    -0.055602044,
    0.056019243,
    0.102045774,
    0.041137498,
    -0.09229745,
    -0.026608843,
    0.028632915,
    0.013478789,
    -0.061631292,
    0.0005365632,
    -0.022373084,
    -0.025482388,
    0.033611767,
    -0.07726647,
    -0.12114762,
    -0.0075063226,
    -0.10218028,
    -0.01442482,
    -0.04108544,
    0.010167966,
    -0.004606485,
    -0.03164365,
    0.0480381,
    -0.03324511,
    -0.033863317,
    0.10167881,
    -0.013710096,
    0.055391602,
    -0.013748198,
    0.024732854,
    -0.03813386,
    -0.0031635016,
    -0.06450474,
    -0.036601204,
    0.003293932,
    0.0434704,
    0.0040396918,
    0.07499571,
    0.038614325,
    -0.011098344,
    0.004454283,
    0.0065800105,
    0.10927326,
    -0.06626223,
    -0.018765401,
    -0.07759381,
    -0.028348893,
    0.019002624,
    0.02918131,
    -0.053944383,
    -0.02920605,
    -0.111166045,
    0.055298895,
    -0.0751509,
    0.038286686,
    -0.025043217,
    0.005564607,
    0.07754068,
    -0.07734763,
    0.011350422,
    0.06937915,
    0.037412934,
    0.015337475,
    0.013578858,
    0.047350083,
    0.04150519,
    -0.009243805,
    0.0043079196,
    0.07740266,
    0.027599873,
    -0.12410843,
    -0.020186422,
    -0.114386395,
    0.042237796,
    0.041322112,
    0.020277822,
    -0.0050323447,
    -0.014269381,
    0.046819393,
    -0.016495172,
    0.041219544,
    -0.012871431,
    0.02945583,
    0.0038572017,
    -0.043635886,
    -0.011279917,
    -0.05235898,
    0.0754513,
    0.06942797,
    -0.022223549,
    0.048426308,
    0.013407984,
    -0.12891999,
    0.0062160525,
    0.0362161,
    -0.040225226,
    -0.05819634,
    -0.002475378,
    -0.0313044,
    -0.031191638,
    -0.020244945,
    0.03459784,
    0.034962166,
    0.076906666,
    0.01398588,
    -0.015040755,
    0.041776508,
    -0.019556113,
    -0.004469866,
    -0.09113114,
    -0.044217594,
    -0.079565525,
    0.008117495,
    -0.072579615,
    -0.044946406,
    0.01665054,
    0.025486939,
    -0.08085367,
    -0.06422222,
    0.008344392,
    -0.05550038,
    -0.043444153,
    0.08036099,
    -0.090405025,
    -0.037425272,
    -0.018753849,
    -0.06871918,
    0.0074180416,
    -0.13109851
  ],
  "bias": -0.05843128
}
